Language model created by QuickLM on Tue Jul 21 04:18:13 EDT 2020
Copyright (c) 1996-2010 Carnegie Mellon University and Alexander I. Rudnicky

The model is in standard ARPA format, designed by Doug Paul while he was at MITRE.

The code that was used to produce this language model is available in Open Source.
Please visit http://www.speech.cs.cmu.edu/tools/ for more information

The (fixed) discount mass is 0.5. The backoffs are computed using the ratio method.
This model based on a corpus of 7 sentences and 9 words

\data\
ngram 1=9
ngram 2=14
ngram 3=7

\1-grams:
-0.7782 </s> -0.3010
-0.7782 <s> -0.2218
-1.6232 COVID -0.2218
-1.6232 HELLO -0.2218
-1.6232 INTERNET -0.2218
-1.6232 ISHAAN -0.2218
-1.6232 NEWS -0.2218
-1.6232 OPEN -0.2218
-1.6232 SCHOOL -0.2218

\2-grams:
-1.1461 <s> COVID 0.0000
-1.1461 <s> HELLO 0.0000
-1.1461 <s> INTERNET 0.0000
-1.1461 <s> ISHAAN 0.0000
-1.1461 <s> NEWS 0.0000
-1.1461 <s> OPEN 0.0000
-1.1461 <s> SCHOOL 0.0000
-0.3010 COVID </s> -0.3010
-0.3010 HELLO </s> -0.3010
-0.3010 INTERNET </s> -0.3010
-0.3010 ISHAAN </s> -0.3010
-0.3010 NEWS </s> -0.3010
-0.3010 OPEN </s> -0.3010
-0.3010 SCHOOL </s> -0.3010

\3-grams:
-0.3010 <s> COVID </s>
-0.3010 <s> HELLO </s>
-0.3010 <s> INTERNET </s>
-0.3010 <s> ISHAAN </s>
-0.3010 <s> NEWS </s>
-0.3010 <s> OPEN </s>
-0.3010 <s> SCHOOL </s>

\end\
